digraph Tree {
node [shape=box, style="filled, rounded", color="black", fontname=helvetica] ;
edge [fontname=helvetica] ;
0 [label="sepal length (cm) <= 5.75\ngini = 0.66\nsamples = 99\nvalue = [51, 39, 60]\nclass = virginica", fillcolor="#f4edfd"] ;
1 [label="petal width (cm) <= 0.7\ngini = 0.42\nsamples = 45\nvalue = [50, 19, 1]\nclass = setosa", fillcolor="#efb287"] ;
0 -> 1 [labeldistance=2.5, labelangle=45, headlabel="True"] ;
2 [label="gini = 0.0\nsamples = 32\nvalue = [50, 0, 0]\nclass = setosa", fillcolor="#e58139"] ;
1 -> 2 ;
3 [label="petal length (cm) <= 4.7\ngini = 0.09\nsamples = 13\nvalue = [0, 19, 1]\nclass = versicolor", fillcolor="#43e688"] ;
1 -> 3 ;
4 [label="gini = 0.0\nsamples = 12\nvalue = [0, 19, 0]\nclass = versicolor", fillcolor="#39e581"] ;
3 -> 4 ;
5 [label="gini = 0.0\nsamples = 1\nvalue = [0, 0, 1]\nclass = virginica", fillcolor="#8139e5"] ;
3 -> 5 ;
6 [label="petal length (cm) <= 4.95\ngini = 0.39\nsamples = 54\nvalue = [1, 20, 59]\nclass = virginica", fillcolor="#ad7eee"] ;
0 -> 6 [labeldistance=2.5, labelangle=-45, headlabel="False"] ;
7 [label="petal width (cm) <= 1.65\ngini = 0.33\nsamples = 18\nvalue = [1, 20, 4]\nclass = versicolor", fillcolor="#68eb9f"] ;
6 -> 7 ;
8 [label="petal width (cm) <= 0.6\ngini = 0.09\nsamples = 15\nvalue = [1, 19, 0]\nclass = versicolor", fillcolor="#43e688"] ;
7 -> 8 ;
9 [label="gini = 0.0\nsamples = 1\nvalue = [1, 0, 0]\nclass = setosa", fillcolor="#e58139"] ;
8 -> 9 ;
10 [label="gini = 0.0\nsamples = 14\nvalue = [0, 19, 0]\nclass = versicolor", fillcolor="#39e581"] ;
8 -> 10 ;
11 [label="sepal width (cm) <= 3.1\ngini = 0.32\nsamples = 3\nvalue = [0, 1, 4]\nclass = virginica", fillcolor="#a06aec"] ;
7 -> 11 ;
12 [label="gini = 0.0\nsamples = 2\nvalue = [0, 0, 4]\nclass = virginica", fillcolor="#8139e5"] ;
11 -> 12 ;
13 [label="gini = 0.0\nsamples = 1\nvalue = [0, 1, 0]\nclass = versicolor", fillcolor="#39e581"] ;
11 -> 13 ;
14 [label="gini = 0.0\nsamples = 36\nvalue = [0, 0, 55]\nclass = virginica", fillcolor="#8139e5"] ;
6 -> 14 ;
}